<?xml version="1.0"?>
<opencv_storage>
<cascade>
  <stageType>BOOST</stageType>
  <featureType>HAAR</featureType>
  <height>24</height>
  <width>24</width>
  <stageParams>
    <boostType>GAB</boostType>
    <minHitRate>9.9500000476837158e-01</minHitRate>
    <maxFalseAlarm>5.0000000000000000e-01</maxFalseAlarm>
    <weightTrimRate>9.4999998807907104e-01</weightTrimRate>
    <maxDepth>1</maxDepth>
    <maxWeakCount>100</maxWeakCount></stageParams>
  <featureParams>
    <maxCatCount>0</maxCatCount>
    <featSize>1</featSize>
    <mode>BASIC</mode></featureParams>
  <stageNum>15</stageNum>
  <stages>
    <!-- stage 0 -->
    <_>
      <maxWeakCount>12</maxWeakCount>
      <stageThreshold>-1.2354601621627808e+00</stageThreshold>
      <weakClassifiers>
        <_>
          <internalNodes>
            0 -1 3 -1.8508270150050521e-03</internalNodes>
          <leafValues>
            1. -8.5786801576614380e-01</leafValues></_>
        <_>
          <internalNodes>
            0 -1 10 -9.3127448053564876e-05</internalNodes>
          <leafValues>
            9.9276816844940186e-01 -4.4440487027168274e-01</leafValues></_>
        <_>
          <internalNodes>
            0 -1 3 -1.8508270150050521e-03</internalNodes>
          <leafValues>
            1. -4.4933166354894638e-02</leafValues></_>
        <_>
          <internalNodes>
            0 -1 9 8.8497120887041092e-03</internalNodes>
          <leafValues>
            1.5354883670806885e-01 -1.</leafValues></_>
        <_>
          <internalNodes>
            0 -1 11 9.3809037934988737e-04</internalNodes>
          <leafValues>
            -1.1230775713920593e-01 9.8791408538818359e-01</leafValues></_>
        <_>
          <internalNodes>
            0 -1 5 2.3265767842531204e-02</internalNodes>
          <leafValues>
            5.9732772409915924e-02 -1.</leafValues></_>
        <_>
          <internalNodes>
            0 -1 4 5.8055952191352844e-02</internalNodes>
          <leafValues>
            2.4863006547093391e-02 -1.</leafValues></_>
        <_>
          <internalNodes>
            0 -1 7 1.5837958455085754e-01</internalNodes>
          <leafValues>
            5.1250822252768558e-06 -1.</leafValues></_>
        <_>
          <internalNodes>
            0 -1 1 -2.2653292398899794e-03</internalNodes>
          <leafValues>
            1. -1.4095202088356018e-02</leafValues></_>
        <_>
          <internalNodes>
            0 -1 1 1.4549186453223228e-03</internalNodes>
          <leafValues>
            -9.3356464958560537e-07 1.</leafValues></_>
        <_>
          <internalNodes>
            0 -1 2 1.3486400712281466e-03</internalNodes>
          <leafValues>
            5.8539095334708691e-04 -1.</leafValues></_>
        <_>
          <internalNodes>
            0 -1 0 3.6599479615688324e-02</internalNodes>
          <leafValues>
            -5.8539089513942599e-04 -1.</leafValues></_></weakClassifiers></_>
    <!-- stage 1 -->
    <_>
      <maxWeakCount>4</maxWeakCount>
      <stageThreshold>-1.3592660427093506e+00</stageThreshold>
      <weakClassifiers>
        <_>
          <internalNodes>
            0 -1 3 -1.8508270150050521e-03</internalNodes>
          <leafValues>
            1. -8.5786801576614380e-01</leafValues></_>
        <_>
          <internalNodes>
            0 -1 6 1.1117436224594712e-03</internalNodes>
          <leafValues>
            -4.5547547936439514e-01 1.</leafValues></_>
        <_>
          <internalNodes>
            0 -1 8 -2.4305337865371257e-04</internalNodes>
          <leafValues>
            1. -4.5890308916568756e-02</leafValues></_>
        <_>
          <internalNodes>
            0 -1 8 -2.4305337865371257e-04</internalNodes>
          <leafValues>
            1. -3.2254545658361167e-05</leafValues></_></weakClassifiers></_>
    <!-- stage 2 -->
    <_>
      <maxWeakCount>4</maxWeakCount>
      <stageThreshold>-1.3592660427093506e+00</stageThreshold>
      <weakClassifiers>
        <_>
          <internalNodes>
            0 -1 3 -1.8508270150050521e-03</internalNodes>
          <leafValues>
            1. -8.5786801576614380e-01</leafValues></_>
        <_>
          <internalNodes>
            0 -1 6 1.1117436224594712e-03</internalNodes>
          <leafValues>
            -4.5547547936439514e-01 1.</leafValues></_>
        <_>
          <internalNodes>
            0 -1 8 -2.4305337865371257e-04</internalNodes>
          <leafValues>
            1. -4.5890308916568756e-02</leafValues></_>
        <_>
          <internalNodes>
            0 -1 8 -2.4305337865371257e-04</internalNodes>
          <leafValues>
            1. -3.2254545658361167e-05</leafValues></_></weakClassifiers></_>
    <!-- stage 3 -->
    <_>
      <maxWeakCount>4</maxWeakCount>
      <stageThreshold>-1.3592660427093506e+00</stageThreshold>
      <weakClassifiers>
        <_>
          <internalNodes>
            0 -1 3 -1.8508270150050521e-03</internalNodes>
          <leafValues>
            1. -8.5786801576614380e-01</leafValues></_>
        <_>
          <internalNodes>
            0 -1 6 1.1117436224594712e-03</internalNodes>
          <leafValues>
            -4.5547547936439514e-01 1.</leafValues></_>
        <_>
          <internalNodes>
            0 -1 8 -2.4305337865371257e-04</internalNodes>
          <leafValues>
            1. -4.5890308916568756e-02</leafValues></_>
        <_>
          <internalNodes>
            0 -1 8 -2.4305337865371257e-04</internalNodes>
          <leafValues>
            1. -3.2254545658361167e-05</leafValues></_></weakClassifiers></_>
    <!-- stage 4 -->
    <_>
      <maxWeakCount>4</maxWeakCount>
      <stageThreshold>-1.3592660427093506e+00</stageThreshold>
      <weakClassifiers>
        <_>
          <internalNodes>
            0 -1 3 -1.8508270150050521e-03</internalNodes>
          <leafValues>
            1. -8.5786801576614380e-01</leafValues></_>
        <_>
          <internalNodes>
            0 -1 6 1.1117436224594712e-03</internalNodes>
          <leafValues>
            -4.5547547936439514e-01 1.</leafValues></_>
        <_>
          <internalNodes>
            0 -1 8 -2.4305337865371257e-04</internalNodes>
          <leafValues>
            1. -4.5890308916568756e-02</leafValues></_>
        <_>
          <internalNodes>
            0 -1 8 -2.4305337865371257e-04</internalNodes>
          <leafValues>
            1. -3.2254545658361167e-05</leafValues></_></weakClassifiers></_>
    <!-- stage 5 -->
    <_>
      <maxWeakCount>4</maxWeakCount>
      <stageThreshold>-1.3592660427093506e+00</stageThreshold>
      <weakClassifiers>
        <_>
          <internalNodes>
            0 -1 3 -1.8508270150050521e-03</internalNodes>
          <leafValues>
            1. -8.5786801576614380e-01</leafValues></_>
        <_>
          <internalNodes>
            0 -1 6 1.1117436224594712e-03</internalNodes>
          <leafValues>
            -4.5547547936439514e-01 1.</leafValues></_>
        <_>
          <internalNodes>
            0 -1 8 -2.4305337865371257e-04</internalNodes>
          <leafValues>
            1. -4.5890308916568756e-02</leafValues></_>
        <_>
          <internalNodes>
            0 -1 8 -2.4305337865371257e-04</internalNodes>
          <leafValues>
            1. -3.2254545658361167e-05</leafValues></_></weakClassifiers></_>
    <!-- stage 6 -->
    <_>
      <maxWeakCount>4</maxWeakCount>
      <stageThreshold>-1.3592660427093506e+00</stageThreshold>
      <weakClassifiers>
        <_>
          <internalNodes>
            0 -1 3 -1.8508270150050521e-03</internalNodes>
          <leafValues>
            1. -8.5786801576614380e-01</leafValues></_>
        <_>
          <internalNodes>
            0 -1 6 1.1117436224594712e-03</internalNodes>
          <leafValues>
            -4.5547547936439514e-01 1.</leafValues></_>
        <_>
          <internalNodes>
            0 -1 8 -2.4305337865371257e-04</internalNodes>
          <leafValues>
            1. -4.5890308916568756e-02</leafValues></_>
        <_>
          <internalNodes>
            0 -1 8 -2.4305337865371257e-04</internalNodes>
          <leafValues>
            1. -3.2254545658361167e-05</leafValues></_></weakClassifiers></_>
    <!-- stage 7 -->
    <_>
      <maxWeakCount>4</maxWeakCount>
      <stageThreshold>-1.3592660427093506e+00</stageThreshold>
      <weakClassifiers>
        <_>
          <internalNodes>
            0 -1 3 -1.8508270150050521e-03</internalNodes>
          <leafValues>
            1. -8.5786801576614380e-01</leafValues></_>
        <_>
          <internalNodes>
            0 -1 6 1.1117436224594712e-03</internalNodes>
          <leafValues>
            -4.5547547936439514e-01 1.</leafValues></_>
        <_>
          <internalNodes>
            0 -1 8 -2.4305337865371257e-04</internalNodes>
          <leafValues>
            1. -4.5890308916568756e-02</leafValues></_>
        <_>
          <internalNodes>
            0 -1 8 -2.4305337865371257e-04</internalNodes>
          <leafValues>
            1. -3.2254545658361167e-05</leafValues></_></weakClassifiers></_>
    <!-- stage 8 -->
    <_>
      <maxWeakCount>4</maxWeakCount>
      <stageThreshold>-1.3592660427093506e+00</stageThreshold>
      <weakClassifiers>
        <_>
          <internalNodes>
            0 -1 3 -1.8508270150050521e-03</internalNodes>
          <leafValues>
            1. -8.5786801576614380e-01</leafValues></_>
        <_>
          <internalNodes>
            0 -1 6 1.1117436224594712e-03</internalNodes>
          <leafValues>
            -4.5547547936439514e-01 1.</leafValues></_>
        <_>
          <internalNodes>
            0 -1 8 -2.4305337865371257e-04</internalNodes>
          <leafValues>
            1. -4.5890308916568756e-02</leafValues></_>
        <_>
          <internalNodes>
            0 -1 8 -2.4305337865371257e-04</internalNodes>
          <leafValues>
            1. -3.2254545658361167e-05</leafValues></_></weakClassifiers></_>
    <!-- stage 9 -->
    <_>
      <maxWeakCount>4</maxWeakCount>
      <stageThreshold>-1.3592660427093506e+00</stageThreshold>
      <weakClassifiers>
        <_>
          <internalNodes>
            0 -1 3 -1.8508270150050521e-03</internalNodes>
          <leafValues>
            1. -8.5786801576614380e-01</leafValues></_>
        <_>
          <internalNodes>
            0 -1 6 1.1117436224594712e-03</internalNodes>
          <leafValues>
            -4.5547547936439514e-01 1.</leafValues></_>
        <_>
          <internalNodes>
            0 -1 8 -2.4305337865371257e-04</internalNodes>
          <leafValues>
            1. -4.5890308916568756e-02</leafValues></_>
        <_>
          <internalNodes>
            0 -1 8 -2.4305337865371257e-04</internalNodes>
          <leafValues>
            1. -3.2254545658361167e-05</leafValues></_></weakClassifiers></_>
    <!-- stage 10 -->
    <_>
      <maxWeakCount>4</maxWeakCount>
      <stageThreshold>-1.3592660427093506e+00</stageThreshold>
      <weakClassifiers>
        <_>
          <internalNodes>
            0 -1 3 -1.8508270150050521e-03</internalNodes>
          <leafValues>
            1. -8.5786801576614380e-01</leafValues></_>
        <_>
          <internalNodes>
            0 -1 6 1.1117436224594712e-03</internalNodes>
          <leafValues>
            -4.5547547936439514e-01 1.</leafValues></_>
        <_>
          <internalNodes>
            0 -1 8 -2.4305337865371257e-04</internalNodes>
          <leafValues>
            1. -4.5890308916568756e-02</leafValues></_>
        <_>
          <internalNodes>
            0 -1 8 -2.4305337865371257e-04</internalNodes>
          <leafValues>
            1. -3.2254545658361167e-05</leafValues></_></weakClassifiers></_>
    <!-- stage 11 -->
    <_>
      <maxWeakCount>4</maxWeakCount>
      <stageThreshold>-1.3592660427093506e+00</stageThreshold>
      <weakClassifiers>
        <_>
          <internalNodes>
            0 -1 3 -1.8508270150050521e-03</internalNodes>
          <leafValues>
            1. -8.5786801576614380e-01</leafValues></_>
        <_>
          <internalNodes>
            0 -1 6 1.1117436224594712e-03</internalNodes>
          <leafValues>
            -4.5547547936439514e-01 1.</leafValues></_>
        <_>
          <internalNodes>
            0 -1 8 -2.4305337865371257e-04</internalNodes>
          <leafValues>
            1. -4.5890308916568756e-02</leafValues></_>
        <_>
          <internalNodes>
            0 -1 8 -2.4305337865371257e-04</internalNodes>
          <leafValues>
            1. -3.2254545658361167e-05</leafValues></_></weakClassifiers></_>
    <!-- stage 12 -->
    <_>
      <maxWeakCount>4</maxWeakCount>
      <stageThreshold>-1.3592660427093506e+00</stageThreshold>
      <weakClassifiers>
        <_>
          <internalNodes>
            0 -1 3 -1.8508270150050521e-03</internalNodes>
          <leafValues>
            1. -8.5786801576614380e-01</leafValues></_>
        <_>
          <internalNodes>
            0 -1 6 1.1117436224594712e-03</internalNodes>
          <leafValues>
            -4.5547547936439514e-01 1.</leafValues></_>
        <_>
          <internalNodes>
            0 -1 8 -2.4305337865371257e-04</internalNodes>
          <leafValues>
            1. -4.5890308916568756e-02</leafValues></_>
        <_>
          <internalNodes>
            0 -1 8 -2.4305337865371257e-04</internalNodes>
          <leafValues>
            1. -3.2254545658361167e-05</leafValues></_></weakClassifiers></_>
    <!-- stage 13 -->
    <_>
      <maxWeakCount>4</maxWeakCount>
      <stageThreshold>-1.3592660427093506e+00</stageThreshold>
      <weakClassifiers>
        <_>
          <internalNodes>
            0 -1 3 -1.8508270150050521e-03</internalNodes>
          <leafValues>
            1. -8.5786801576614380e-01</leafValues></_>
        <_>
          <internalNodes>
            0 -1 6 1.1117436224594712e-03</internalNodes>
          <leafValues>
            -4.5547547936439514e-01 1.</leafValues></_>
        <_>
          <internalNodes>
            0 -1 8 -2.4305337865371257e-04</internalNodes>
          <leafValues>
            1. -4.5890308916568756e-02</leafValues></_>
        <_>
          <internalNodes>
            0 -1 8 -2.4305337865371257e-04</internalNodes>
          <leafValues>
            1. -3.2254545658361167e-05</leafValues></_></weakClassifiers></_>
    <!-- stage 14 -->
    <_>
      <maxWeakCount>4</maxWeakCount>
      <stageThreshold>-1.3592660427093506e+00</stageThreshold>
      <weakClassifiers>
        <_>
          <internalNodes>
            0 -1 3 -1.8508270150050521e-03</internalNodes>
          <leafValues>
            1. -8.5786801576614380e-01</leafValues></_>
        <_>
          <internalNodes>
            0 -1 6 1.1117436224594712e-03</internalNodes>
          <leafValues>
            -4.5547547936439514e-01 1.</leafValues></_>
        <_>
          <internalNodes>
            0 -1 8 -2.4305337865371257e-04</internalNodes>
          <leafValues>
            1. -4.5890308916568756e-02</leafValues></_>
        <_>
          <internalNodes>
            0 -1 8 -2.4305337865371257e-04</internalNodes>
          <leafValues>
            1. -3.2254545658361167e-05</leafValues></_></weakClassifiers></_></stages>
  <features>
    <_>
      <rects>
        <_>
          0 0 2 1 -1.</_>
        <_>
          1 0 1 1 2.</_></rects>
      <tilted>0</tilted></_>
    <_>
      <rects>
        <_>
          0 0 1 9 -1.</_>
        <_>
          0 3 1 3 3.</_></rects>
      <tilted>0</tilted></_>
    <_>
      <rects>
        <_>
          0 0 1 24 -1.</_>
        <_>
          0 12 1 12 2.</_></rects>
      <tilted>0</tilted></_>
    <_>
      <rects>
        <_>
          0 0 10 9 -1.</_>
        <_>
          5 0 5 9 2.</_></rects>
      <tilted>0</tilted></_>
    <_>
      <rects>
        <_>
          0 6 24 10 -1.</_>
        <_>
          8 6 8 10 3.</_></rects>
      <tilted>0</tilted></_>
    <_>
      <rects>
        <_>
          0 7 24 6 -1.</_>
        <_>
          8 7 8 6 3.</_></rects>
      <tilted>0</tilted></_>
    <_>
      <rects>
        <_>
          0 18 20 6 -1.</_>
        <_>
          0 18 10 3 2.</_>
        <_>
          10 21 10 3 2.</_></rects>
      <tilted>0</tilted></_>
    <_>
      <rects>
        <_>
          1 2 16 21 -1.</_>
        <_>
          1 9 16 7 3.</_></rects>
      <tilted>0</tilted></_>
    <_>
      <rects>
        <_>
          2 18 22 6 -1.</_>
        <_>
          2 18 11 3 2.</_>
        <_>
          13 21 11 3 2.</_></rects>
      <tilted>0</tilted></_>
    <_>
      <rects>
        <_>
          5 2 3 21 -1.</_>
        <_>
          5 9 3 7 3.</_></rects>
      <tilted>0</tilted></_>
    <_>
      <rects>
        <_>
          12 18 12 6 -1.</_>
        <_>
          12 18 6 3 2.</_>
        <_>
          18 21 6 3 2.</_></rects>
      <tilted>0</tilted></_>
    <_>
      <rects>
        <_>
          14 0 10 8 -1.</_>
        <_>
          14 0 5 4 2.</_>
        <_>
          19 4 5 4 2.</_></rects>
      <tilted>0</tilted></_></features></cascade>
</opencv_storage>
